digraph Tree {
node [shape=box, style="filled, rounded", color="black", fontname="helvetica"] ;
edge [fontname="helvetica"] ;
0 [label="x1 <= 0.009\nentropy = 2.0\nsamples = 300\nvalue = [75, 75, 75, 75]\nclass = 0", fillcolor="#ffffff"] ;
1 [label="x2 <= 5.177\nentropy = 1.315\nsamples = 155\nvalue = [12, 0, 73, 70]\nclass = 2", fillcolor="#f8fcfe"] ;
0 -> 1 [labeldistance=2.5, labelangle=45, headlabel="True"] ;
2 [label="x2 <= 3.82\nentropy = 0.519\nsamples = 81\nvalue = [7, 0, 73, 1]\nclass = 2", fillcolor="#4ea8e8"] ;
1 -> 2 ;
3 [label="x1 <= -0.117\nentropy = 0.112\nsamples = 67\nvalue = [1, 0, 66, 0]\nclass = 2", fillcolor="#3c9ee5"] ;
2 -> 3 ;
4 [label="entropy = 0.0\nsamples = 65\nvalue = [0, 0, 65, 0]\nclass = 2", fillcolor="#399de5"] ;
3 -> 4 ;
5 [label="entropy = 1.0\nsamples = 2\nvalue = [1, 0, 1, 0]\nclass = 0", fillcolor="#ffffff"] ;
3 -> 5 ;
6 [label="x1 <= -1.609\nentropy = 1.296\nsamples = 14\nvalue = [6, 0, 7, 1]\nclass = 2", fillcolor="#e6f3fc"] ;
2 -> 6 ;
7 [label="entropy = 0.722\nsamples = 5\nvalue = [0, 0, 4, 1]\nclass = 2", fillcolor="#6ab6ec"] ;
6 -> 7 ;
8 [label="entropy = 0.918\nsamples = 9\nvalue = [6, 0, 3, 0]\nclass = 0", fillcolor="#f2c09c"] ;
6 -> 8 ;
9 [label="x2 <= 6.261\nentropy = 0.357\nsamples = 74\nvalue = [5, 0, 0, 69]\nclass = 3", fillcolor="#da47e7"] ;
1 -> 9 ;
10 [label="x1 <= -0.762\nentropy = 0.994\nsamples = 11\nvalue = [5, 0, 0, 6]\nclass = 3", fillcolor="#f8defb"] ;
9 -> 10 ;
11 [label="entropy = 0.0\nsamples = 4\nvalue = [0, 0, 0, 4]\nclass = 3", fillcolor="#d739e5"] ;
10 -> 11 ;
12 [label="entropy = 0.863\nsamples = 7\nvalue = [5, 0, 0, 2]\nclass = 0", fillcolor="#efb388"] ;
10 -> 12 ;
13 [label="entropy = 0.0\nsamples = 63\nvalue = [0, 0, 0, 63]\nclass = 3", fillcolor="#d739e5"] ;
9 -> 13 ;
14 [label="x2 <= 2.567\nentropy = 1.267\nsamples = 145\nvalue = [63, 75, 2, 5]\nclass = 1", fillcolor="#e4fbe2"] ;
0 -> 14 [labeldistance=2.5, labelangle=-45, headlabel="False"] ;
15 [label="x1 <= 0.104\nentropy = 0.103\nsamples = 74\nvalue = [1, 73, 0, 0]\nclass = 1", fillcolor="#4ae53c"] ;
14 -> 15 ;
16 [label="entropy = 0.0\nsamples = 1\nvalue = [1, 0, 0, 0]\nclass = 0", fillcolor="#e58139"] ;
15 -> 16 ;
17 [label="entropy = 0.0\nsamples = 73\nvalue = [0, 73, 0, 0]\nclass = 1", fillcolor="#47e539"] ;
15 -> 17 ;
18 [label="x2 <= 6.583\nentropy = 0.73\nsamples = 71\nvalue = [62, 2, 2, 5]\nclass = 0", fillcolor="#e99254"] ;
14 -> 18 ;
19 [label="x2 <= 3.611\nentropy = 0.39\nsamples = 66\nvalue = [62, 2, 2, 0]\nclass = 0", fillcolor="#e78945"] ;
18 -> 19 ;
20 [label="entropy = 1.022\nsamples = 17\nvalue = [13, 2, 2, 0]\nclass = 0", fillcolor="#eca36e"] ;
19 -> 20 ;
21 [label="entropy = 0.0\nsamples = 49\nvalue = [49, 0, 0, 0]\nclass = 0", fillcolor="#e58139"] ;
19 -> 21 ;
22 [label="entropy = 0.0\nsamples = 5\nvalue = [0, 0, 0, 5]\nclass = 3", fillcolor="#d739e5"] ;
18 -> 22 ;
}